<?xml version="1.0"?>
<MethodSetup Method="MLP::MLPBNN">
  <GeneralInfo>
    <Info name="TMVA Release" value="4.2.1 [262657]"/>
    <Info name="ROOT Release" value="6.30/02 [400898]"/>
    <Info name="Creator" value="michelemaestrelli"/>
    <Info name="Date" value="Mon Jan 22 01:26:29 2024"/>
    <Info name="Host" value="Darwin Sonoma-arm64.local 23.0.0 Darwin Kernel Version 23.0.0: Thu Aug 17 21:24:15 PDT 2023; root:xnu-10002.1.11~3/RELEASE_ARM64_VMAPPLE arm64"/>
    <Info name="Dir" value="/Users/michelemaestrelli/Desktop/Software-and-Computing/ML_TMVA"/>
    <Info name="Training events" value="30000"/>
    <Info name="TrainingTime" value="6.38224950e+01"/>
    <Info name="AnalysisType" value="Classification"/>
  </GeneralInfo>
  <Options>
    <Option name="NCycles" modified="Yes">200</Option>
    <Option name="HiddenLayers" modified="Yes">3</Option>
    <Option name="NeuronType" modified="Yes">tanh</Option>
    <Option name="RandomSeed" modified="No">1</Option>
    <Option name="EstimatorType" modified="No">CE</Option>
    <Option name="NeuronInputType" modified="No">sum</Option>
    <Option name="V" modified="Yes">False</Option>
    <Option name="VerbosityLevel" modified="No">Default</Option>
    <Option name="VarTransform" modified="Yes">N</Option>
    <Option name="H" modified="Yes">True</Option>
    <Option name="CreateMVAPdfs" modified="No">False</Option>
    <Option name="IgnoreNegWeightsInTraining" modified="No">False</Option>
    <Option name="TrainingMethod" modified="Yes">BFGS</Option>
    <Option name="LearningRate" modified="No">2.000000e-02</Option>
    <Option name="DecayRate" modified="No">1.000000e-02</Option>
    <Option name="TestRate" modified="Yes">5</Option>
    <Option name="EpochMonitoring" modified="No">False</Option>
    <Option name="Sampling" modified="No">1.000000e+00</Option>
    <Option name="SamplingEpoch" modified="No">1.000000e+00</Option>
    <Option name="SamplingImportance" modified="No">1.000000e+00</Option>
    <Option name="SamplingTraining" modified="No">True</Option>
    <Option name="SamplingTesting" modified="No">False</Option>
    <Option name="ResetStep" modified="No">50</Option>
    <Option name="Tau" modified="No">3.000000e+00</Option>
    <Option name="BPMode" modified="No">sequential</Option>
    <Option name="BatchSize" modified="No">-1</Option>
    <Option name="ConvergenceImprove" modified="No">1.000000e-30</Option>
    <Option name="ConvergenceTests" modified="No">-1</Option>
    <Option name="UseRegulator" modified="Yes">True</Option>
    <Option name="UpdateLimit" modified="No">10000</Option>
    <Option name="CalculateErrors" modified="No">False</Option>
    <Option name="WeightRange" modified="No">1.000000e+00</Option>
  </Options>
  <Variables NVar="6">
    <Variable VarIndex="0" Expression="DER_mass_MMC" Label="DER_mass_MMC" Title="DER_mass_MMC" Unit="" Internal="DER_mass_MMC" Type="F" Min="-9.99000000e+02" Max="9.87560974e+02"/>
    <Variable VarIndex="1" Expression="DER_mass_transverse_met_lep" Label="DER_mass_transverse_met_lep" Title="DER_mass_transverse_met_lep" Unit="" Internal="DER_mass_transverse_met_lep" Type="F" Min="0.00000000e+00" Max="5.26536011e+02"/>
    <Variable VarIndex="2" Expression="DER_mass_vis" Label="DER_mass_vis" Title="DER_mass_vis" Unit="" Internal="DER_mass_vis" Type="F" Min="9.83600044e+00" Max="8.22557983e+02"/>
    <Variable VarIndex="3" Expression="DER_pt_ratio_lep_tau" Label="DER_pt_ratio_lep_tau" Title="DER_pt_ratio_lep_tau" Unit="" Internal="DER_pt_ratio_lep_tau" Type="F" Min="8.69999975e-02" Max="1.89920006e+01"/>
    <Variable VarIndex="4" Expression="PRI_tau_pt" Label="PRI_tau_pt" Title="PRI_tau_pt" Unit="" Internal="PRI_tau_pt" Type="F" Min="2.00009995e+01" Max="3.97899994e+02"/>
    <Variable VarIndex="5" Expression="PRI_met" Label="PRI_met" Title="PRI_met" Unit="" Internal="PRI_met" Type="F" Min="1.03000000e-01" Max="6.68476013e+02"/>
  </Variables>
  <Spectators NSpec="0"/>
  <Classes NClass="2">
    <Class Name="Signal" Index="0"/>
    <Class Name="Background" Index="1"/>
  </Classes>
  <Transformations NTransformations="1">
    <Transform Name="Normalize">
      <Selection>
        <Input NInputs="6">
          <Input Type="Variable" Label="DER_mass_MMC" Expression="DER_mass_MMC"/>
          <Input Type="Variable" Label="DER_mass_transverse_met_lep" Expression="DER_mass_transverse_met_lep"/>
          <Input Type="Variable" Label="DER_mass_vis" Expression="DER_mass_vis"/>
          <Input Type="Variable" Label="DER_pt_ratio_lep_tau" Expression="DER_pt_ratio_lep_tau"/>
          <Input Type="Variable" Label="PRI_tau_pt" Expression="PRI_tau_pt"/>
          <Input Type="Variable" Label="PRI_met" Expression="PRI_met"/>
        </Input>
        <Output NOutputs="6">
          <Output Type="Variable" Label="DER_mass_MMC" Expression="DER_mass_MMC"/>
          <Output Type="Variable" Label="DER_mass_transverse_met_lep" Expression="DER_mass_transverse_met_lep"/>
          <Output Type="Variable" Label="DER_mass_vis" Expression="DER_mass_vis"/>
          <Output Type="Variable" Label="DER_pt_ratio_lep_tau" Expression="DER_pt_ratio_lep_tau"/>
          <Output Type="Variable" Label="PRI_tau_pt" Expression="PRI_tau_pt"/>
          <Output Type="Variable" Label="PRI_met" Expression="PRI_met"/>
        </Output>
      </Selection>
      <Class ClassIndex="0">
        <Ranges>
          <Range Index="0" Min="-9.9900000000000000e+02" Max="8.4416802978515625e+02"/>
          <Range Index="1" Min="0.0000000000000000e+00" Max="5.0917098999023438e+02"/>
          <Range Index="2" Min="1.6447000503540039e+01" Max="6.4558599853515625e+02"/>
          <Range Index="3" Min="1.1800000071525574e-01" Max="9.7189998626708984e+00"/>
          <Range Index="4" Min="2.0004999160766602e+01" Max="3.9789999389648438e+02"/>
          <Range Index="5" Min="1.0300000011920929e-01" Max="4.9708200073242188e+02"/>
        </Ranges>
      </Class>
      <Class ClassIndex="1">
        <Ranges>
          <Range Index="0" Min="-9.9900000000000000e+02" Max="9.8756097412109375e+02"/>
          <Range Index="1" Min="4.0000001899898052e-03" Max="5.2653601074218750e+02"/>
          <Range Index="2" Min="9.8360004425048828e+00" Max="8.2255798339843750e+02"/>
          <Range Index="3" Min="8.6999997496604919e-02" Max="1.8992000579833984e+01"/>
          <Range Index="4" Min="2.0000999450683594e+01" Max="3.9251599121093750e+02"/>
          <Range Index="5" Min="1.0899999737739563e-01" Max="6.6847601318359375e+02"/>
        </Ranges>
      </Class>
      <Class ClassIndex="2">
        <Ranges>
          <Range Index="0" Min="-9.9900000000000000e+02" Max="9.8756097412109375e+02"/>
          <Range Index="1" Min="0.0000000000000000e+00" Max="5.2653601074218750e+02"/>
          <Range Index="2" Min="9.8360004425048828e+00" Max="8.2255798339843750e+02"/>
          <Range Index="3" Min="8.6999997496604919e-02" Max="1.8992000579833984e+01"/>
          <Range Index="4" Min="2.0000999450683594e+01" Max="3.9789999389648438e+02"/>
          <Range Index="5" Min="1.0300000011920929e-01" Max="6.6847601318359375e+02"/>
        </Ranges>
      </Class>
    </Transform>
  </Transformations>
  <MVAPdfs/>
  <Weights>
    <Layout NLayers="3">
      <Layer Index="0" NNeurons="7">
        <Neuron NSynapses="3">
          -1.4133324457411826e+01 4.5707968273356645e+00 -6.8804819191925901e+00 
        </Neuron>
        <Neuron NSynapses="3">
          -1.9898764799550814e-01 -3.1143998328384286e+00 -2.4279751542066275e+00 
        </Neuron>
        <Neuron NSynapses="3">
          -6.1149578118945813e+00 1.0520616087716874e+00 -1.0263215591805313e+01 
        </Neuron>
        <Neuron NSynapses="3">
          6.9786046388543943e-01 1.3096947583594418e+00 1.1860294395616777e+00 
        </Neuron>
        <Neuron NSynapses="3">
          9.6354692218999916e-01 -4.4035409949605349e+00 3.4361661542233115e+00 
        </Neuron>
        <Neuron NSynapses="3">
          -1.1530924983741895e+00 -7.2610063816062931e-01 -1.3562098508590976e+00 
        </Neuron>
        <Neuron NSynapses="3">
          -3.3869463213682187e+00 1.5284610909678839e-01 -6.1681403082689457e+00 
        </Neuron>
      </Layer>
      <Layer Index="1" NNeurons="4">
        <Neuron NSynapses="1">
          -5.3276722252332425e+00 
        </Neuron>
        <Neuron NSynapses="1">
          -2.1200704523119227e+00 
        </Neuron>
        <Neuron NSynapses="1">
          4.8111909495289789e+00 
        </Neuron>
        <Neuron NSynapses="1">
          -1.6669312901402062e+00 
        </Neuron>
      </Layer>
      <Layer Index="2" NNeurons="1">
        <Neuron NSynapses="0"/>
      </Layer>
    </Layout>
    <InverseHessian NElements="625" NRows="25" NCols="25">
      <Row Index="0">
        1.2791181431347520e+00 -3.1462973706426095e-01 6.2091297116371437e-02 -1.3120620253020184e-02 2.7001356752416289e-01 1.4629239906176880e-01 6.5065301924753141e-02 -9.2156148711368235e-02 1.2037840712409556e-01 -9.5880984388317415e-03 -1.3718390383216308e-01 -1.7411108019459564e-02 -3.0150658008052666e-03 3.3592448695512300e-01 -1.5657474973070934e-01 1.9436859481948926e-02 5.4936955911257912e-02 -2.3323174317114163e-02 -7.0615289167982834e-02 -4.6432163071374877e-02 2.2787073963477789e-02 -4.3389186748484065e-01 -1.2615841929672522e-01 3.3142477167018919e-01 1.8164484785215013e-02 
      </Row>
      <Row Index="1">
        -3.1462973706424935e-01 9.2591038242464729e-01 -4.1202274472475937e-02 9.6764060076802785e-03 -1.0410972115945080e-01 -3.6211584920512109e-02 -3.2594331109793921e-02 2.3034751220398783e-01 -6.0846342954976325e-02 -3.8268049727149020e-04 -2.5657691784111958e-01 3.2803967655321382e-03 -9.6360304206372094e-03 -7.2606252891139622e-01 3.6202464726188932e-02 -8.0520284683247585e-03 -3.0078360679754418e-02 2.3934755700960497e-03 -8.0696824887939965e-04 1.5125074637638006e-01 -3.0973527134894329e-02 1.2325599380950704e-01 9.3806490452644789e-02 -8.4215079999362411e-02 -4.9505654389757965e-02 
      </Row>
      <Row Index="2">
        6.2091297116285075e-02 -4.1202274472472100e-02 2.1296702873930098e-01 -2.6032759452876968e-02 -1.9277006647913715e-03 1.5237919988214301e-02 -8.7174084591496059e-02 -1.6289566484740191e-02 8.4956005581185962e-02 4.9098544418681679e-03 1.2819147656732369e-02 -1.7335135193255219e-02 2.0465888826291082e-02 1.5577813690641203e-02 -4.0502688985394650e-02 -1.1289729422970700e-02 -3.0606411485691321e-03 8.4124492664814660e-03 -9.5735511406379481e-02 -2.9953511274451450e-02 -2.0800090878444026e-03 -1.9842502329959443e-02 4.8673599558462372e-04 3.5676576992533314e-02 -9.4812582275395213e-03 
      </Row>
      <Row Index="3">
        -1.3120620252990049e-02 9.6764060076751229e-03 -2.6032759452871954e-02 1.9924331406713302e-02 2.7721932335682741e-03 -3.5607430686163087e-03 1.2412484794344952e-02 -1.5413947690852777e-04 -6.1594385160000618e-02 -5.0445384003353891e-05 -2.7537575029031782e-03 9.0554154771868497e-03 -7.5980280553110228e-03 1.7598238904809750e-03 2.2968059858000593e-02 1.2019560238700207e-04 2.1784605003343782e-03 -6.9314166726064819e-03 2.2357594077576880e-02 1.1250778929007943e-02 -2.0874234564474872e-02 2.4577911531484881e-02 -1.6722526974783103e-03 -2.8723311060407753e-02 2.5038169798784057e-03 
      </Row>
      <Row Index="4">
        2.7001356752420308e-01 -1.0410972115946726e-01 -1.9277006647679571e-03 2.7721932335674645e-03 4.5921839952606242e-01 2.2924716341125927e-02 7.1323599287377304e-02 -7.2848501903796339e-02 1.9474431474066713e-02 -7.3369319728990882e-03 -3.7519029071336030e-01 -1.6592092249009605e-03 -9.8801348185123001e-03 1.6450324526494453e-01 -2.2220369155326786e-02 1.3805648727009432e-02 -5.9395679687034894e-02 -3.8190500029444173e-03 2.9273617502395859e-02 -1.0681690689772892e-01 1.1150477859574714e-02 -9.4705039051314568e-02 -7.6509632489233328e-02 5.0194802805755764e-02 3.3298277658166564e-02 
      </Row>
      <Row Index="5">
        1.4629239906178523e-01 -3.6211584920512560e-02 1.5237919988227024e-02 -3.5607430686216040e-03 2.2924716341126458e-02 3.4743370230461132e-02 1.9398125975337993e-03 -7.5554332059134029e-03 5.2659418138525226e-02 -2.8935247843896918e-03 -1.1174838592222286e-02 -1.0454102883630502e-02 4.5798508968617306e-03 2.8970502822096952e-02 -3.3591495085404703e-02 3.0110369725029475e-03 3.5225871584353002e-03 6.9553246569168965e-04 -9.5265302941882572e-03 -1.3346851956080069e-02 2.6435193846569501e-02 -6.6622451675028643e-02 -1.0401690424738803e-02 6.1338736849405578e-02 -1.9607062511844357e-03 
      </Row>
      <Row Index="6">
        6.5065301924874891e-02 -3.2594331109775866e-02 -8.7174084591454842e-02 1.2412484794358296e-02 7.1323599287388309e-02 1.9398125975361984e-03 1.6440045644694348e-01 -1.3837505774199134e-02 2.2866028188293593e-03 -1.6516640162350681e-02 -4.5519345619623557e-02 1.0291705233335686e-03 -2.6528141639842830e-02 7.5075457048030980e-02 2.1977110952427492e-03 2.8084954449922751e-02 1.7809869640737871e-02 -2.1987484112046055e-03 1.3034627280234812e-01 2.7346547307869118e-02 2.4270009700537269e-02 -3.8609841124467845e-02 -3.3596964959257757e-02 6.0427598533339504e-03 6.5730956052889172e-03 
      </Row>
      <Row Index="7">
        -9.2156148711372440e-02 2.3034751220399846e-01 -1.6289566484748254e-02 -1.5413947690775311e-04 -7.2848501903792010e-02 -7.5554332059121270e-03 -1.3837505774187979e-02 2.1751893452970311e-01 -2.3059710798207420e-03 1.2066366843477680e-03 -7.2227439391625972e-02 3.4968749756431827e-05 1.3453925767122012e-03 -2.3920200921657303e-01 6.9522979177173115e-03 -2.7832721389084805e-03 1.2513763828040222e-02 2.4432941446151943e-03 -1.3624125012910227e-03 1.0049147885449938e-01 2.6334183539572999e-03 2.9712725075167284e-02 2.5867356126643468e-02 -1.6387514894361323e-02 -1.1934091865612562e-02 
      </Row>
      <Row Index="8">
        1.2037840712403228e-01 -6.0846342954934740e-02 8.4956005581150365e-02 -6.1594385159989787e-02 1.9474431474092353e-02 5.2659418138503042e-02 2.2866028189739290e-03 -2.3059710798257688e-03 3.6918664276189656e-01 -1.0799093477403187e-02 -9.7253565183144514e-03 -5.8439832605132441e-02 2.5370047426565061e-02 2.3148536862318686e-02 -1.3252785392248143e-01 1.3279081415913727e-02 -2.3065172185520733e-03 5.1041503076023384e-02 -3.9788325505297199e-02 -4.3440900560022588e-02 1.8360491077970437e-01 -1.3336309427773496e-01 -7.3282137021719179e-03 1.4746691319953936e-01 -1.9952407519177678e-02 
      </Row>
      <Row Index="9">
        -9.5880984388364236e-03 -3.8268049727831384e-04 4.9098544418437204e-03 -5.0445384002044154e-05 -7.3369319728873355e-03 -2.8935247843863759e-03 -1.6516640162313967e-02 1.2066366843473556e-03 -1.0799093477376884e-02 1.0702970234806784e-02 5.0905799816321831e-03 1.1279646191258872e-02 4.6864700540338597e-03 -7.0714865471437176e-03 7.0945602238250824e-03 -4.4530727183896730e-03 -1.9315988398446397e-03 -2.1299985108566236e-03 -3.5121142935025111e-03 -5.8247377826189384e-03 2.4874413475763552e-03 8.4849196174321458e-03 3.4807955963606953e-03 -5.3827665629526643e-03 -3.4618705623352779e-04 
      </Row>
      <Row Index="10">
        -1.3718390383220533e-01 -2.5657691784109804e-01 1.2819147656718164e-02 -2.7537575029036284e-03 -3.7519029071338361e-01 -1.1174838592223540e-02 -4.5519345619622495e-02 -7.2227439391614273e-02 -9.7253565182948056e-03 5.0905799816409495e-03 6.7358692961414501e-01 1.0700736603540077e-03 7.7789879598447048e-03 2.1461588249148103e-01 1.0968448493685570e-02 -8.5398732755985439e-03 2.8153325188085318e-02 1.5387431937300949e-03 -2.1643425810919159e-02 2.5196266528570838e-01 -7.8796390916410792e-03 4.8523986171309881e-02 3.2176176491386557e-02 -2.4067579634120446e-02 -9.2562374616948634e-03 
      </Row>
      <Row Index="11">
        -1.7411108019444295e-02 3.2803967655180566e-03 -1.7335135193282142e-02 9.0554154771875350e-03 -1.6592092248840487e-03 -1.0454102883620113e-02 1.0291705233775837e-03 3.4968749755291300e-05 -5.8439832605094111e-02 1.1279646191256092e-02 1.0700736603425039e-03 2.7029675429894547e-02 -1.1564901385513835e-03 -1.5725958863973674e-03 2.9788928158865587e-02 -3.0068480699691046e-03 3.0479296332441841e-04 -9.3573096900976920e-03 1.6647140442181459e-02 2.3125449983346091e-03 -7.9448309004176067e-03 2.1561647030502645e-02 6.0832248114776194e-04 -2.3864828599540581e-02 2.7978342627985376e-03 
      </Row>
      <Row Index="12">
        -3.0150658008197234e-03 -9.6360304206414421e-03 2.0465888826278325e-02 -7.5980280553134888e-03 -9.8801348185071063e-03 4.5798508968637238e-03 -2.6528141639820486e-02 1.3453925767129278e-03 2.5370047426606084e-02 4.6864700540365086e-03 7.7789879598400887e-03 -1.1564901385495642e-03 1.0184560847768054e-02 -8.3016346545999545e-03 -6.8251714975357501e-03 -4.5051130240130509e-03 -3.8010051341801632e-03 1.7951378395500628e-03 -1.9340441788976589e-02 -1.6049122524288667e-02 1.2423893930680260e-02 -6.7144453080099677e-03 4.9443607684154919e-03 1.2881241301772574e-02 -2.1006891704915837e-03 
      </Row>
      <Row Index="13">
        3.3592448695513555e-01 -7.2606252891139378e-01 1.5577813690667677e-02 1.7598238904792821e-03 1.6450324526491605e-01 2.8970502822092781e-02 7.5075457048008540e-02 -2.3920200921656398e-01 2.3148536862292644e-02 -7.0714865471538145e-03 2.1461588249151495e-01 -1.5725958864131627e-03 -8.3016346546033546e-03 7.2905064624713567e-01 -2.7727731331453655e-02 1.4714043849809788e-02 1.9683104765777580e-02 -5.7541981144206495e-03 2.6442275319432530e-02 3.0466304890418083e-02 9.4935493648974131e-03 -1.1665064764847609e-01 -1.0594564277743999e-01 6.3867505931363991e-02 5.3488538811440639e-02 
      </Row>
      <Row Index="14">
        -1.5657474973067517e-01 3.6202464726166422e-02 -4.0502688985415460e-02 2.2968059857999042e-02 -2.2220369155311597e-02 -3.3591495085385371e-02 2.1977110952692072e-03 6.9522979177169038e-03 -1.3252785392243277e-01 7.0945602238255499e-03 1.0968448493674980e-02 2.9788928158869923e-02 -6.8251714975299856e-03 -2.7727731331441539e-02 7.3845376700911639e-02 -5.4976045175854169e-03 -2.7598395378955736e-03 -1.4501382953801181e-02 3.0929100367279406e-02 1.4495768064701793e-02 -4.0773900681595421e-02 8.8284889274543726e-02 9.9207934039680853e-03 -8.6845235162924889e-02 5.2660637984952349e-03 
      </Row>
      <Row Index="15">
        1.9436859481957867e-02 -8.0520284683190235e-03 -1.1289729422969982e-02 1.2019560239019042e-04 1.3805648727012768e-02 3.0110369725015566e-03 2.8084954449935827e-02 -2.7832721389102325e-03 1.3279081415890421e-02 -4.4530727183975305e-03 -8.5398732756000999e-03 -3.0068480699781386e-03 -4.5051130240194113e-03 1.4714043849814718e-02 -5.4976045175910634e-03 8.6359649911611925e-03 2.6272377018969149e-03 5.7195713056699066e-03 2.1707236353816921e-02 3.2890649613638327e-03 1.2749812618534723e-02 -1.3147383726304390e-02 -6.3446903000652548e-03 7.6351091420382667e-03 6.1848410121272124e-04 
      </Row>
      <Row Index="16">
        5.4936955911249502e-02 -3.0078360679721229e-02 -3.0606411485626099e-03 2.1784605003348258e-03 -5.9395679687042874e-02 3.5225871584325572e-03 1.7809869640725423e-02 1.2513763828051251e-02 -2.3065172185682456e-03 -1.9315988398464459e-03 2.8153325188076530e-02 3.0479296332196302e-04 -3.8010051341805543e-03 1.9683104765748537e-02 -2.7598395378942483e-03 2.6272377018939528e-03 2.7640785555150482e-01 -2.1935427545382779e-03 7.8592211024795869e-03 2.0510780428950212e-01 -1.8039985076817059e-03 -1.7057075289714025e-02 -1.9448168190162825e-02 6.8780221824508861e-03 1.0173851371815664e-02 
      </Row>
      <Row Index="17">
        -2.3323174317156553e-02 2.3934755701085306e-03 8.4124492664483935e-03 -6.9314166725986514e-03 -3.8190500029338850e-03 6.9553246568430102e-04 -2.1987484111422335e-03 2.4432941446150204e-03 5.1041503076012552e-02 -2.1299985108638514e-03 1.5387431937207462e-03 -9.3573096901019420e-03 1.7951378395370428e-03 -5.7541981144130496e-03 -1.4501382953800643e-02 5.7195713056796341e-03 -2.1935427545343548e-03 2.2575486197234602e-02 -1.8662675052827649e-03 -2.8651127468526196e-03 3.7490402431608533e-02 -6.6986912116977096e-04 2.1414873481944109e-03 5.3408558374120766e-03 -3.5945198803310624e-03 
      </Row>
      <Row Index="18">
        -7.0615289167859543e-02 -8.0696824887289140e-04 -9.5735511406377455e-02 2.2357594077592274e-02 2.9273617502427109e-02 -9.5265302941764472e-03 1.3034627280240751e-01 -1.3624125013032339e-03 -3.9788325505396425e-02 -3.5121142935396286e-03 -2.1643425810936475e-02 1.6647140442140773e-02 -1.9340441789002148e-02 2.6442275319470243e-02 3.0929100367250419e-02 2.1707236353815697e-02 7.8592211024930154e-03 -1.8662675053374273e-03 1.3639220988091014e-01 2.0477831644575870e-02 2.3713057203799501e-02 1.7071497416191357e-02 -1.3737894949629351e-02 -3.3560100944095429e-02 4.1893162326217259e-03 
      </Row>
      <Row Index="19">
        -4.6432163071381927e-02 1.5125074637642577e-01 -2.9953511274435577e-02 1.1250778929011640e-02 -1.0681690689776201e-01 -1.3346851956085745e-02 2.7346547307825507e-02 1.0049147885451437e-01 -4.3440900560088265e-02 -5.8247377826192420e-03 2.5196266528571537e-01 2.3125449983366691e-03 -1.6049122524286266e-02 3.0466304890370999e-02 1.4495768064717562e-02 3.2890649613527170e-03 2.0510780428949771e-01 -2.8651127468704895e-03 2.0477831644536242e-02 5.8257091203501377e-01 -2.4227357318005408e-02 3.0254780639665007e-02 -1.1901391178669165e-02 -3.3615397683578942e-02 1.4382805571809905e-02 
      </Row>
      <Row Index="20">
        2.2787073963471186e-02 -3.0973527134884941e-02 -2.0800090879327235e-03 -2.0874234564462888e-02 1.1150477859638097e-02 2.6435193846574927e-02 2.4270009700772047e-02 2.6334183539488457e-03 1.8360491077977659e-01 2.4874413475395353e-03 -7.8796390916865480e-03 -7.9448309004610702e-03 1.2423893930636021e-02 9.4935493649582377e-03 -4.0773900681655567e-02 1.2749812618575147e-02 -1.8039985076610838e-03 3.7490402431617588e-02 2.3713057203975409e-02 -2.4227357317946945e-02 1.5249279873148747e-01 -5.1258526169837518e-02 -3.8638872720170793e-03 5.8420677225479271e-02 -1.1949068508918942e-02 
      </Row>
      <Row Index="21">
        -4.3389186748485176e-01 1.2325599380950121e-01 -1.9842502329998641e-02 2.4577911531494717e-02 -9.4705039051305173e-02 -6.6622451675020372e-02 -3.8609841124444565e-02 2.9712725075168755e-02 -1.3336309427775023e-01 8.4849196174398983e-03 4.8523986171298078e-02 2.1561647030523944e-02 -6.7144453080056751e-03 -1.1665064764847835e-01 8.8284889274576034e-02 -1.3147383726302649e-02 -1.7057075289720978e-02 -6.6986912118009517e-04 1.7071497416233188e-02 3.0254780639646844e-02 -5.1258526169795982e-02 1.9750768959306966e-01 4.3530418933970569e-02 -1.6472408300862737e-01 -2.9735128321290369e-03 
      </Row>
      <Row Index="22">
        -1.2615841929673924e-01 9.3806490452642985e-02 4.8673599557300562e-04 -1.6722526974779154e-03 -7.6509632489229346e-02 -1.0401690424737943e-02 -3.3596964959249312e-02 2.5867356126642815e-02 -7.3282137021577556e-03 3.4807955963657845e-03 3.2176176491380055e-02 6.0832248115520824e-04 4.9443607684174452e-03 -1.0594564277744202e-01 9.9207934039740042e-03 -6.3446903000630352e-03 -1.9448168190167484e-02 2.1414873481995877e-03 -1.3737894949612672e-02 -1.1901391178680722e-02 -3.8638872719863660e-03 4.3530418933972664e-02 3.6537988791536816e-02 -2.2546056784776662e-02 -1.6227996087336351e-02 
      </Row>
      <Row Index="23">
        3.3142477167018353e-01 -8.4215079999356346e-02 3.5676576992558315e-02 -2.8723311060416611e-02 5.0194802805749970e-02 6.1338736849396988e-02 6.0427598533264529e-03 -1.6387514894362541e-02 1.4746691319956962e-01 -5.3827665629568259e-03 -2.4067579634113621e-02 -2.3864828599556857e-02 1.2881241301767928e-02 6.3867505931365975e-02 -8.6845235162954670e-02 7.6351091420401359e-03 6.8780221824561181e-03 5.3408558374288193e-03 -3.3560100944115871e-02 -3.3615397683564779e-02 5.8420677225464838e-02 -1.6472408300862490e-01 -2.2546056784775410e-02 1.5405940984998751e-01 -4.6296974914161052e-03 
      </Row>
      <Row Index="24">
        1.8164484785217313e-02 -4.9505654389759075e-02 -9.4812582275334636e-03 2.5038169798773540e-03 3.3298277658161110e-02 -1.9607062511839270e-03 6.5730956052746144e-03 -1.1934091865610851e-02 -1.9952407519180801e-02 -3.4618705623228047e-04 -9.2562374616896575e-03 2.7978342628000043e-03 -2.1006891704887644e-03 5.3488538811437260e-02 5.2660637984980607e-03 6.1848410121018941e-04 1.0173851371816358e-02 -3.5945198803324654e-03 4.1893162326098526e-03 1.4382805571809760e-02 -1.1949068508920108e-02 -2.9735128321282446e-03 -1.6227996087334575e-02 -4.6296974914153055e-03 1.6632650651808276e-02 
      </Row>
    </InverseHessian>
  </Weights>
</MethodSetup>
